5.71296319   5.83303064   2.15069935  -3.10449842  -2.50142049  -0.20195869   0.68731816   0.88675722   0.90936628   1.97215977 0.69249042   0.74045568   0.7531272    0.49982072   0.70293784  0.90551814
2.34936585   2.26613795   1.57248177  -2.80393081  -2.62353005 0.17749225   0.91420059   1.02215242   0.65299893   1.28523104 0.59133171  0.96724014   0.7309807    0.78325322   0.68276565  0.53293667
1.15975337   1.13123215   1.1083196    0.33041586   0.10781628 0.57229434   0.53233742   0.94563172   0.75005696   0.860757 0.5343533    0.84162255   0.71381349   0.39810693   0.6186351  0.8087293 
0.83156411   0.75483468   0.95866293  -0.47009682  -0.51832937  0.6540948    0.4490639    1.13512515   0.83786856   0.67437119  0.90078774    0.77045261   1.06415871   0.72108013   0.47960489  0.93365746
0.75642962   0.55033063   0.77533878   0.9592816    0.94996682  0.75128913   0.86591621   0.91067354   0.90907657   0.97299242  0.84705999   0.72793944   0.73090631   0.5852663    0.55764473  0.56993297
5.17409392   5.12188376   2.19281492 -10.19501836  -8.964128  -1.1172283    0.47032881   1.68072476   0.65335253   1.85347313  0.2552467    0.51746939   1.78869249   0.20950202   0.77409957  0.32061459
30.66669291  31.38343179  14.03224331 -63.91680892 -56.64106925  -5.81319034  -5.19685789  12.32203992  -3.06471023  11.41369897  -4.55633409  -0.63878547  12.77267334  -1.7408375   -5.08127196  -3.40000523
20.81633559  21.17330566  10.16957217 -42.84348522 -37.69713253  -3.82374542  -3.64325403   9.38164297  -1.19472594   8.19055231  -3.36919417  -0.19365652   8.25370856  -1.40033746  -4.20317898  -2.06886723
W2
-202.73059024
-205.32586772
-202.77211601
-202.87134802
-202.73827727
-202.63794712
0.52026741
-202.47770196
-0.28072904
-202.65260725
-0.23304129
-1.53803447
-200.45538323
-1.54680799
-1.83121377
-0.30082213
